digraph Tree {
node [shape=box, style="rounded", color="black", fontname=helvetica] ;
edge [fontname=helvetica] ;
0 [label="orders_sum <= 5.5\ngini = 0.5\nsamples = 62\nvalue = [56, 49]"] ;
1 [label="orderAmountCategory_3 <= 0.5\ngini = 0.5\nsamples = 55\nvalue = [56, 33]"] ;
0 -> 1 [labeldistance=2.5, labelangle=45, headlabel="True"] ;
2 [label="customerEmailDomainPublic <= 0.5\ngini = 0.4\nsamples = 53\nvalue = [56, 28]"] ;
1 -> 2 ;
3 [label="unique_paymentMethodIssuer <= 2.5\ngini = 0.5\nsamples = 22\nvalue = [17, 19]"] ;
2 -> 3 ;
4 [label="transactionAmountCategory_2 <= 0.5\ngini = 0.5\nsamples = 14\nvalue = [14, 9]"] ;
3 -> 4 ;
5 [label="gini = 0.0\nsamples = 4\nvalue = [7, 0]"] ;
4 -> 5 ;
6 [label="repeated_customerIPAddress <= 0.5\ngini = 0.5\nsamples = 10\nvalue = [7, 9]"] ;
4 -> 6 ;
7 [label="unique_orderShippingAddress <= 2.5\ngini = 0.5\nsamples = 9\nvalue = [7, 8]"] ;
6 -> 7 ;
8 [label="orders_sum <= 2.5\ngini = 0.4\nsamples = 7\nvalue = [3, 8]"] ;
7 -> 8 ;
9 [label="orders_pending <= 0.5\ngini = 0.5\nsamples = 4\nvalue = [3, 2]"] ;
8 -> 9 ;
10 [label="paymentMethod_all <= 1.5\ngini = 0.4\nsamples = 3\nvalue = [3, 1]"] ;
9 -> 10 ;
11 [label="gini = 0.0\nsamples = 2\nvalue = [3, 0]"] ;
10 -> 11 ;
12 [label="gini = 0.0\nsamples = 1\nvalue = [0, 1]"] ;
10 -> 12 ;
13 [label="gini = 0.0\nsamples = 1\nvalue = [0, 1]"] ;
9 -> 13 ;
14 [label="gini = 0.0\nsamples = 3\nvalue = [0, 6]"] ;
8 -> 14 ;
15 [label="gini = 0.0\nsamples = 2\nvalue = [4, 0]"] ;
7 -> 15 ;
16 [label="gini = 0.0\nsamples = 1\nvalue = [0, 1]"] ;
6 -> 16 ;
17 [label="transactions_True <= 1.5\ngini = 0.4\nsamples = 8\nvalue = [3, 10]"] ;
3 -> 17 ;
18 [label="transactionAmountCategory_1 <= 2.5\ngini = 0.2\nsamples = 5\nvalue = [1, 8]"] ;
17 -> 18 ;
19 [label="orders_value_sum <= 134.5\ngini = 0.4\nsamples = 3\nvalue = [1, 3]"] ;
18 -> 19 ;
20 [label="unique_orderShippingAddress <= 2.5\ngini = 0.5\nsamples = 2\nvalue = [1, 1]"] ;
19 -> 20 ;
21 [label="gini = 0.0\nsamples = 1\nvalue = [0, 1]"] ;
20 -> 21 ;
22 [label="gini = 0.0\nsamples = 1\nvalue = [1, 0]"] ;
20 -> 22 ;
23 [label="gini = 0.0\nsamples = 1\nvalue = [0, 2]"] ;
19 -> 23 ;
24 [label="gini = 0.0\nsamples = 2\nvalue = [0, 5]"] ;
18 -> 24 ;
25 [label="unique_paymentMethodProvider <= 3.5\ngini = 0.5\nsamples = 3\nvalue = [2, 2]"] ;
17 -> 25 ;
26 [label="gini = 0.0\nsamples = 2\nvalue = [2, 0]"] ;
25 -> 26 ;
27 [label="gini = 0.0\nsamples = 1\nvalue = [0, 2]"] ;
25 -> 27 ;
28 [label="strange_paymentMethodIssuer <= 0.5\ngini = 0.3\nsamples = 31\nvalue = [39, 9]"] ;
2 -> 28 ;
29 [label="orders_pending <= 0.5\ngini = 0.3\nsamples = 29\nvalue = [39, 7]"] ;
28 -> 29 ;
30 [label="unique_paymentMethodIssuer <= 3.5\ngini = 0.3\nsamples = 22\nvalue = [27, 7]"] ;
29 -> 30 ;
31 [label="orders_failed <= 0.5\ngini = 0.1\nsamples = 20\nvalue = [27, 2]"] ;
30 -> 31 ;
32 [label="gini = 0.0\nsamples = 15\nvalue = [21, 0]"] ;
31 -> 32 ;
33 [label="orderAmountCategory_1 <= 0.5\ngini = 0.4\nsamples = 5\nvalue = [6, 2]"] ;
31 -> 33 ;
34 [label="gini = 0.0\nsamples = 1\nvalue = [3, 0]"] ;
33 -> 34 ;
35 [label="transactions_False <= 2.5\ngini = 0.5\nsamples = 4\nvalue = [3, 2]"] ;
33 -> 35 ;
36 [label="gini = 0.0\nsamples = 1\nvalue = [0, 1]"] ;
35 -> 36 ;
37 [label="orderAmountCategory_1 <= 1.5\ngini = 0.4\nsamples = 3\nvalue = [3, 1]"] ;
35 -> 37 ;
38 [label="gini = 0.0\nsamples = 1\nvalue = [0, 1]"] ;
37 -> 38 ;
39 [label="gini = 0.0\nsamples = 2\nvalue = [3, 0]"] ;
37 -> 39 ;
40 [label="gini = 0.0\nsamples = 2\nvalue = [0, 5]"] ;
30 -> 40 ;
41 [label="gini = 0.0\nsamples = 7\nvalue = [12, 0]"] ;
29 -> 41 ;
42 [label="gini = 0.0\nsamples = 2\nvalue = [0, 2]"] ;
28 -> 42 ;
43 [label="gini = 0.0\nsamples = 2\nvalue = [0, 5]"] ;
1 -> 43 ;
44 [label="gini = 0.0\nsamples = 7\nvalue = [0, 16]"] ;
0 -> 44 [labeldistance=2.5, labelangle=-45, headlabel="False"] ;
}